svm_type c_svc
kernel_type linear
nr_class 3
total_sv 30
rho 0.5701044690136774 0.5127896926361383 0.1384642226563541
label 0 1 2
probA -2.032286300273011 -3.0206549919864525 -2.789247193763125
probB -0.6157505214818252 -0.1502963079283627 0.19857986999843094
nr_sv 12 8 10
SV
0.0 0.8435028289721155 0:0.0378255769610405 1:0.02290586568415165 2:0.005751187447458506 3:0.02473849430680275 4:0.06795160472393036 5:-0.049250632524490356 6:0.00034457544097676873 7:0.07086168229579926 8:0.05375431478023529 9:0.0034935716539621353 10:-0.02326209470629692 11:-0.003752648364752531 12:0.023270510137081146 13:0.0576431043446064 14:-0.024493226781487465 15:0.015330110676586628 16:-0.05928006395697594 17:-0.07424549013376236 18:0.006593432277441025 19:-0.021342692896723747 20:0.0332183837890625 21:-0.036897096782922745 22:-0.022169163450598717 23:0.020027410238981247 24:0.0037593047600239515 25:-0.028778310865163803 26:-0.010864939540624619 27:0.005251510534435511 28:0.025764718651771545 29:-0.049696750938892365 30:-0.05078844726085663 31:-0.04441889375448227 32:-0.0419091135263443 33:-0.03975079208612442 34:0.01413027849048376 35:0.03233148157596588 36:-0.002724748570472002 37:0.056419193744659424 38:-0.08519299328327179 39:0.015735657885670662 40:-0.06481564790010452 41:0.1671462506055832 42:0.04564972594380379 43:0.05901306867599487 44:0.034150734543800354 45:0.03893348574638367 46:0.06690124422311783 47:0.08011003583669662 48:-0.08916480839252472 49:-0.0053452360443770885 50:0.0024854326620697975 51:-0.020393649116158485 52:0.0681598037481308 53:-0.01953786425292492 54:-0.026375196874141693 55:0.10308044403791428 56:0.021937958896160126 57:0.010928506962954998 58:-0.028555486351251602 59:-0.05666036531329155 60:0.006119479425251484 61:-0.044775910675525665 62:-0.013504956848919392 63:-0.0591990128159523 64:-0.04073081538081169 65:0.013272805139422417 66:-0.04402526840567589 67:0.09170401841402054 68:0.03130923956632614 69:-0.02170017920434475 70:-0.008809161372482777 71:0.0017570622731000185 72:-0.04567820951342583 73:-0.023434175178408623 74:0.05456987023353577 75:-0.0761122778058052 76:-0.02609860710799694 77:0.08618242293596268 78:-0.028472639620304108 79:0.014715740457177162 80:0.02038206160068512 81:0.061830975115299225 82:-0.026157531887292862 83:0.03376224264502525 84:-0.10074314475059509 85:0.062359850853681564 86:-0.017719702795147896 87:-0.015391197986900806 88:-0.022028442472219467 89:0.06231629103422165 90:0.03896721079945564 91:0.07099447399377823 92:0.02083565667271614 93:-0.09959982335567474 94:0.010831674560904503 95:0.019472869113087654 96:0.0407029427587986 97:0.013077371753752232 98:0.003982486203312874 99:-0.08420103788375854 100:-0.012419742532074451 101:0.01236418355256319 102:-0.030999479815363884 103:0.002113833324983716 104:0.00455560814589262 105:0.010190170258283615 106:-0.03990607336163521 107:-0.0036460375413298607 108:-0.031649399548769 109:0.006617770995944738 110:0.05215714871883392 111:0.051072344183921814 112:0.047837354242801666 113:0.005603383760899305 114:0.06338565796613693 115:-0.015137585811316967 116:0.07962816208600998 117:0.03898831829428673 118:-0.0429181307554245 119:-0.06641897559165955 120:-0.05273597687482834 121:0.05819322541356087 122:0.0820808857679367 123:-0.0838419497013092 124:0.028704537078738213 125:0.0016201742691919208 126:0.004564792383462191 127:-0.028457563370466232 128:0.023432232439517975 129:0.018613170832395554 130:-0.03404697775840759 131:0.0865292102098465 132:0.07870392501354218 133:-0.03670729324221611 134:0.05238301306962967 135:-0.029712580144405365 136:0.009679730981588364 137:0.03153529018163681 138:0.03479035198688507 139:0.04908818379044533 140:-0.022133653983473778 141:-0.03733775019645691 142:-0.004332147538661957 143:-0.03085278533399105 144:0.033193256705999374 145:0.029448561370372772 146:0.012840482406318188 147:0.05723950266838074 148:0.010669147595763206 149:-0.030825087800621986 150:0.047496497631073 151:-0.08623666316270828 152:-0.09591743350028992 153:0.0005481699481606483 154:-0.07897015661001205 155:0.05659567192196846 156:-0.036257825791835785 157:0.0653567910194397 158:0.013769534416496754 159:-0.02809739299118519 160:0.05165490508079529 161:-0.007530436385422945 162:-0.001863389858044684 163:-0.0503479465842247 164:-0.02278285101056099 165:0.014252555556595325 166:-0.03622046485543251 167:-0.04434705153107643 168:0.0031522372737526894 169:0.03428642824292183 170:0.00783086009323597 171:-0.054608117789030075 172:0.028206132352352142 173:-0.03710094094276428 174:0.12756800651550293 175:0.02582361549139023 176:0.04120659455657005 177:0.006434985902160406 178:-0.009255689568817616 179:-0.058952849358320236 180:-0.025857917964458466 181:0.016161583364009857 182:-0.08212939649820328 183:-0.06635323911905289 184:-0.008092732168734074 185:0.0713617354631424 186:-0.022114461287856102 187:0.007863469421863556 188:0.050119753926992416 189:0.026209453120827675 190:0.04149235412478447 191:-0.012115566059947014 192:0.03492046892642975 193:0.028150780126452446 194:0.019261138513684273 195:0.03674237057566643 196:-0.026737680658698082 197:0.017702270299196243 198:-0.08109298348426819 199:-0.004026742186397314 200:-0.016563905403017998 201:-0.015253021381795406 202:0.009655131958425045 203:-0.0493728443980217 204:0.022446759045124054 205:0.07754657417535782 206:0.022550340741872787 207:-0.004609088413417339 208:0.06645435839891434 209:-0.02807035855948925 210:-0.03183624520897865 211:-0.0047422414645552635 212:0.02896595187485218 213:-0.043240368366241455 214:0.05067921429872513 215:0.03598722442984581 216:-0.07096366584300995 217:-0.013765210285782814 218:-0.04718047007918358 219:-0.019941840320825577 220:-0.07484078407287598 221:-0.07082710415124893 222:-0.058867353945970535 223:0.014149827882647514 224:-0.027918558567762375 225:0.044586870819330215 226:0.008018631488084793 227:0.0462193638086319 228:-0.01759437657892704 229:0.002342385472729802 230:-0.038206104189157486 231:-0.005652895197272301 232:-9.432632941752672e-05 233:-0.07785041630268097 234:0.031993988901376724 235:0.007039590273052454 236:-0.003709252458065748 237:-0.026786062866449356 238:0.06188705936074257 239:0.04587947577238083 240:-0.005899782292544842 241:0.029292097315192223 242:-0.008654672652482986 243:-0.043172989040613174 244:-0.05876265838742256 245:-0.02373780682682991 246:-0.002369261346757412 247:0.02712731435894966 248:-0.05821985378861427 249:0.07804025709629059 250:0.008314019069075584 251:0.05038950592279434 252:-0.04093550518155098 253:0.004738711751997471 254:0.018194502219557762 255:0.06100555136799812 256:-0.07698822021484375 257:0.06236090138554573 258:-0.003074795240536332 259:-0.004719837103039026 260:-0.047053635120391846 261:-0.045801401138305664 262:0.007316486909985542 263:0.03386051580309868 264:-0.0233172457665205 265:-0.006700760684907436 266:-0.019255639985203743 267:0.021101899445056915 268:0.027030494064092636 269:0.057540953159332275 270:-0.06722579896450043 271:0.00860754493623972 272:-0.003023159224539995 273:0.04929870739579201 274:-0.03903043270111084 275:-0.09599985182285309 276:0.04373904690146446 277:0.07877473533153534 278:-0.012060952372848988 279:-0.03675415739417076 280:-0.04805418848991394 281:0.034611981362104416 282:0.08921635895967484 283:-0.05991389602422714 284:0.008060215041041374 285:0.030218346044421196 286:0.05276324599981308 287:-0.0008060286054387689 288:-0.02967953495681286 289:-0.018303843215107918 290:0.03785290569067001 291:0.0010124403052031994 292:-0.028310341760516167 293:0.09433495253324509 294:0.022449731826782227 295:-0.029043221846222878 296:0.0064503513276577 297:0.025236880406737328 298:0.0044626956805586815 299:-0.06644465029239655 300:-0.05366639047861099 301:0.0898953527212143 302:-0.005976879969239235 303:-0.00987625028938055 304:0.05017457157373428 305:0.05344004184007645 306:0.006725660990923643 307:-0.04069388285279274 308:0.07870867848396301 309:0.08831474184989929 310:-0.0329904779791832 311:0.051541488617658615 312:-0.017138725146651268 313:0.1083683967590332 314:0.06515415012836456 315:-0.032865289598703384 316:0.011013432405889034 317:0.07419091463088989 318:-0.009429622441530228 319:0.01675885170698166 320:-0.048179708421230316 321:0.01267455518245697 322:-0.00271209585480392 323:-0.0032503975089639425 324:-0.01910019852221012 325:0.06188943609595299 326:-0.03384720906615257 327:0.02742912992835045 328:-0.03460312634706497 329:-0.007849312387406826 330:-0.046645309776067734 331:0.015773998573422432 332:-0.01166662760078907 333:-0.009031262248754501 334:-0.05478467419743538 335:-0.06840096414089203 336:-0.005296786781400442 337:0.0270338524132967 338:0.05393175408244133 339:0.017381710931658745 340:0.024004053324460983 341:0.059507470577955246 342:0.02365952357649803 343:0.04264996945858002 344:-0.040082164108753204 345:-0.03196652978658676 346:-0.028334643691778183 347:0.05581718310713768 348:0.007954182103276253 349:-0.023295260965824127 350:0.00958656519651413 351:0.05160696059465408 352:0.060253143310546875 353:-0.05027193948626518 354:-0.06991320848464966 355:-0.09468536823987961 356:0.021015143021941185 357:0.00677630677819252 358:0.0248689167201519 359:-0.06768380850553513 360:0.03990548849105835 361:-0.013413354754447937 362:-0.0006215950706973672 363:0.00914132222533226 364:-0.039868395775556564 365:0.03315835818648338 366:-0.01172822155058384 367:-0.049233563244342804 368:0.11467764526605606 369:-0.05446823686361313 370:-0.0685783177614212 371:0.017200129106640816 372:-0.0013370811939239502 373:-0.011733870021998882 374:-0.0057608322240412235 375:0.07170390337705612 376:0.023049945011734962 377:-0.08550857752561569 378:0.01644638180732727 379:0.021739007905125618 380:-0.005979777779430151 381:-0.09134591370820999 382:0.01764450967311859 383:0.018063874915242195 384:-0.040910132229328156 385:0.05388139560818672 386:0.03944285213947296 387:-0.009263405576348305 388:-0.005708988755941391 389:-0.1366582065820694 390:0.024806370958685875 391:0.02547447383403778 392:0.04927833750844002 393:0.036487966775894165 394:0.016445321962237358 395:0.02125781774520874 396:0.0905328094959259 397:0.07106776535511017 398:0.0743994191288948 399:-0.0021869444753974676 400:-0.02028246410191059 401:0.024090779945254326 402:0.011199184693396091 403:-0.04726855829358101 404:0.032677799463272095 405:0.04159137234091759 406:-0.0759727731347084 407:0.011100858449935913 408:0.059931229799985886 409:0.026443250477313995 410:0.025664906948804855 411:0.09252216666936874 412:-0.10222968459129333 413:-0.04893304407596588 414:0.013479301705956459 415:0.01353830099105835 416:-0.03188422694802284 417:-0.0517398975789547 418:0.014681053347885609 419:0.00047336009447462857 420:-0.01014956645667553 421:0.07002703100442886 422:0.009488910436630249 423:-0.01783250831067562 424:-0.03288945183157921 425:0.004841454792767763 426:0.027273153886198997 427:-0.04836524650454521 428:-0.018735257908701897 429:0.02514275349676609 430:-0.018817538395524025 431:0.005235367454588413 432:-0.028388595208525658 433:0.013697105459868908 434:-0.004535812418907881 435:0.029890771955251694 436:0.017210740596055984 437:0.058036454021930695 438:0.028690211474895477 439:-0.019101185724139214 440:0.014013069681823254 441:-0.046613745391368866 442:0.04189815744757652 443:-0.03518328070640564 444:0.05200182646512985 445:0.039901938289403915 446:-0.04727315530180931 447:0.011477124877274036 448:0.036933787167072296 449:-0.062451113015413284 450:-0.02259152941405773 451:0.012536857277154922 452:-0.027586789801716805 453:-0.0171718280762434 454:0.021050309762358665 455:0.015956349670886993 456:0.0681385025382042 457:-0.001993230078369379 458:0.05652911216020584 459:-0.1387554109096527 460:0.07832248508930206 461:-0.00884070061147213 462:-0.02565486915409565 463:-0.01779620349407196 464:-0.03723203390836716 465:-0.057919543236494064 466:-0.03183174878358841 467:0.04571174830198288 468:-0.0769520103931427 469:0.0533839613199234 470:-0.02581828646361828 471:-0.0008635678677819669 472:-0.023647397756576538 473:-0.05974540486931801 474:-0.030586065724492073 475:0.022318419069051743 476:0.049900688230991364 477:0.05109125003218651 478:0.017680179327726364 479:-0.019483355805277824 480:-0.04689066484570503 481:0.07180828601121902 482:-0.034229934215545654 483:-0.009045053273439407 484:-0.02123894914984703 485:-0.010363650508224964 486:-0.014422846026718616 487:0.02115650475025177 488:0.018139874562621117 489:-0.01591423712670803 490:0.02543618716299534 491:-0.051655374467372894 492:0.011874578893184662 493:-0.0249811802059412 494:0.038056567311286926 495:0.03338412567973137 496:-0.006935613229870796 497:-0.010825559496879578 498:0.0009700017399154603 499:-0.0050404975190758705 500:-0.043598055839538574 501:-0.026001546531915665 502:0.011445699259638786 503:-0.05411447957158089 504:-0.035404883325099945 505:0.027370581403374672 506:0.022027259692549706 507:-0.013140595518052578 508:0.042783040553331375 509:-0.018646273761987686 510:-0.015221341513097286 511:-0.03131664916872978
0.0 0.149953726183225 0:0.035388365387916565 1:0.015605545602738857 2:-0.0278813224285841 3:-0.02162647247314453 4:0.014316989108920097 5:0.007372296415269375 6:0.0009310913155786693 7:0.04052925482392311 8:-0.08187856525182724 9:0.0878201499581337 10:-0.08228195458650589 11:-0.04536285623908043 12:-0.07782108336687088 13:0.00234835222363472 14:0.011231938377022743 15:-0.050807468593120575 16:-0.06983847171068192 17:-0.009541413746774197 18:0.026002487167716026 19:-0.05201103538274765 20:0.006301037967205048 21:0.05368499830365181 22:-0.027513369917869568 23:0.026169689372181892 24:0.00783709529787302 25:0.010022426024079323 26:0.0081456508487463 27:0.0004513961321208626 28:0.0223480723798275 29:-0.056422632187604904 30:0.009823409840464592 31:-0.009882566519081593 32:0.05606337636709213 33:0.08824422955513 34:0.02596346102654934 35:-0.03763798624277115 36:-0.008686229586601257 37:0.059530485421419144 38:-0.015435300767421722 39:-0.035275187343358994 40:-0.007096943445503712 41:0.07064879685640335 42:0.10192656517028809 43:0.07046431303024292 44:-0.03645442798733711 45:3.560134064173326e-05 46:-0.0787208303809166 47:-0.011455262079834938 48:-0.11541137099266052 49:0.017615793272852898 50:0.017837366089224815 51:0.059363748878240585 52:0.09330446273088455 53:-0.050162021070718765 54:-0.04445284977555275 55:0.01148930098861456 56:0.02976948395371437 57:0.0032923647668212652 58:-0.026426102966070175 59:-0.0050058322958648205 60:-0.02633049339056015 61:0.04607778415083885 62:-0.015025376342236996 63:-0.09429561346769333 64:-0.018583081662654877 65:-0.0777948796749115 66:-0.024155154824256897 67:0.05869804322719574 68:-0.005513286218047142 69:0.051325902342796326 70:-0.012857404537498951 71:-0.01886795088648796 72:-0.05031106621026993 73:-0.0038477324414998293 74:0.06927093118429184 75:0.008404050022363663 76:-0.037272658199071884 77:0.0481734536588192 78:-0.02996896207332611 79:-0.015691112726926804 80:-0.0011699867900460958 81:0.013957713730633259 82:-0.04030834138393402 83:0.015757836401462555 84:-0.05760405212640762 85:0.04219590872526169 86:-0.03317655250430107 87:-0.01903841458261013 88:-0.10523372888565063 89:-0.011437088251113892 90:0.020536459982395172 91:-0.05278676375746727 92:0.0030255133751779795 93:-0.05769326910376549 94:0.03865264356136322 95:-0.014402192085981369 96:0.05284089967608452 97:-0.02853298932313919 98:-0.002125354716554284 99:-0.0013841964537277818 100:0.03912150859832764 101:0.07279874384403229 102:0.01964160054922104 103:0.020779293030500412 104:-0.029992440715432167 105:-0.025177985429763794 106:-0.0479879304766655 107:0.009659050032496452 108:-0.0038715030532330275 109:-0.03607264906167984 110:0.024214258417487144 111:0.015275401063263416 112:-0.00043087650556117296 113:-0.08265988528728485 114:0.011618627235293388 115:0.03137720748782158 116:0.023711467161774635 117:0.024273891001939774 118:0.007387370336800814 119:0.0009704828262329102 120:-0.0238476675003767 121:0.07517335563898087 122:-0.006303633097559214 123:0.0020172351505607367 124:-0.03478670120239258 125:0.04938630014657974 126:0.0432734377682209 127:0.006502489093691111 128:0.060295864939689636 129:0.03302788734436035 130:-0.06138664111495018 131:0.0561293289065361 132:0.08506752550601959 133:-0.003392418846487999 134:0.007870212197303772 135:-0.05929531157016754 136:0.0594061017036438 137:-0.025774309411644936 138:-0.031475186347961426 139:0.03620392829179764 140:-0.04528652876615524 141:-0.039959926158189774 142:0.039648979902267456 143:-0.03553919121623039 144:-0.02155810222029686 145:9.903889440465719e-05 146:-0.022323716431856155 147:-0.02083982713520527 148:0.013215520419180393 149:-0.05643502250313759 150:0.002849558601155877 151:-0.030127881094813347 152:-0.05781170725822449 153:-0.049118608236312866 154:0.007740591652691364 155:0.023774664849042892 156:-0.08513196557760239 157:0.09724513441324234 158:0.04027207940816879 159:-0.037685394287109375 160:0.0039139399304986 161:0.024885235354304314 162:-0.0005730505799874663 163:0.02703901380300522 164:0.02693427912890911 165:0.09102334082126617 166:-0.06619254499673843 167:-0.02181718498468399 168:-0.04923810809850693 169:0.08288326114416122 170:0.04752964898943901 171:-0.004471580032259226 172:-0.016074849292635918 173:-0.007818636484444141 174:0.03715425357222557 175:-0.008708715438842773 176:0.05553016811609268 177:0.03463393449783325 178:-0.07673659175634384 179:-0.05055859684944153 180:-0.006711732130497694 181:0.017366908490657806 182:0.03841153904795647 183:-0.027710139751434326 184:0.04536626860499382 185:-0.006279914174228907 186:0.033923063427209854 187:-0.0204392708837986 188:0.08463067561388016 189:0.02349187433719635 190:0.09937411546707153 191:0.014885579235851765 192:0.04927109181880951 193:-0.027502261102199554 194:-0.0031411179807037115 195:0.009241151623427868 196:-0.037714436650276184 197:0.061491385102272034 198:-0.06518302112817764 199:0.04361908137798309 200:0.00797383114695549 201:0.03790857642889023 202:0.032800156623125076 203:-0.08910767734050751 204:-0.014572661370038986 205:0.05468681454658508 206:-0.007938993163406849 207:-0.013694904744625092 208:-0.015400447882711887 209:0.02583836019039154 210:0.01776336506009102 211:-0.013259762898087502 212:0.010872564278542995 213:0.03664502501487732 214:0.06550990045070648 215:0.017480604350566864 216:0.053233809769153595 217:-0.07236189395189285 218:-0.023837219923734665 219:-0.007477522827684879 220:-0.0070490301586687565 221:-0.04428369551897049 222:-0.031974662095308304 223:0.03381980210542679 224:-0.04137573391199112 225:-0.07118941843509674 226:0.07452686876058578 227:-0.046054013073444366 228:0.004037927836179733 229:0.013893194496631622 230:0.015010197646915913 231:0.07915335893630981 232:-0.019734280183911324 233:-0.036663394421339035 234:0.010493358597159386 235:-0.05145781859755516 236:0.056346092373132706 237:-0.019244229421019554 238:0.049913857132196426 239:-0.03395497053861618 240:-0.020907310768961906 241:-0.05813668295741081 242:-0.09296781569719315 243:0.0064104218035936356 244:-0.0340852253139019 245:0.027712104842066765 246:0.12034828215837479 247:0.06326236575841904 248:-0.05970874801278114 249:0.07373572140932083 250:-0.0017355062300339341 251:0.0010741717414930463 252:0.0503741130232811 253:-0.019017061218619347 254:-0.0030119444709271193 255:0.0082866745069623 256:-0.012356105260550976 257:0.030099280178546906 258:0.009190577082335949 259:0.0031277243979275227 260:0.011081606149673462 261:0.002496591303497553 262:-0.011975930072367191 263:0.017788115888834 264:-0.03634724020957947 265:-0.04987461864948273 266:-0.03711998462677002 267:0.0027524777688086033 268:0.02992265112698078 269:0.021973244845867157 270:0.049669645726680756 271:0.048632800579071045 272:-0.03828933462500572 273:0.026015933603048325 274:0.0011091601336374879 275:-0.04132597893476486 276:-0.0037070591934025288 277:0.053980037569999695 278:-0.001246354659087956 279:0.0231940895318985 280:-0.007354830391705036 281:-0.030810531228780746 282:0.030903877690434456 283:-0.08399630337953568 284:-0.0364798977971077 285:-0.014827788807451725 286:0.04529301077127457 287:-0.06059769168496132 288:0.01077347807586193 289:-0.012673888355493546 290:-0.006036111619323492 291:-0.0029763781931251287 292:-0.001786684850230813 293:0.05909793823957443 294:0.036588966846466064 295:-0.06622197479009628 296:-0.023120298981666565 297:0.014278611168265343 298:0.0010654517682269216 299:0.025164704769849777 300:-0.0014978902181610465 301:-0.029029278084635735 302:-0.00013382955512497574 303:-0.0012798267416656017 304:0.07447601854801178 305:0.005584889091551304 306:0.010657202452421188 307:0.00579092837870121 308:0.05862215906381607 309:0.019402319565415382 310:-0.06022779271006584 311:0.0593973770737648 312:-0.05540955811738968 313:0.0776701495051384 314:0.06086359918117523 315:-0.03842698037624359 316:0.0017230320954695344 317:-0.02778475545346737 318:0.037292033433914185 319:-0.01854587346315384 320:0.0264632198959589 321:-0.0053052338771522045 322:-0.0370190367102623 323:-0.053629688918590546 324:-0.0699838325381279 325:0.04990629851818085 326:-0.07047755271196365 327:-0.0707215964794159 328:-0.047882601618766785 329:-0.04815429076552391 330:-0.07367381453514099 331:-0.01138440240174532 332:-0.06966213881969452 333:0.05071699246764183 334:-0.04302138090133667 335:0.02562534622848034 336:-0.045014042407274246 337:-0.008010038174688816 338:-0.08241475373506546 339:-0.0025291074998676777 340:-0.05577932670712471 341:0.060740046203136444 342:0.09267786890268326 343:0.0007122590905055404 344:-0.051674965769052505 345:-0.0627853199839592 346:-0.013191528618335724 347:0.0028121545910835266 348:0.05910734832286835 349:0.04506244882941246 350:-0.12300300598144531 351:0.04356095939874649 352:-0.004617295227944851 353:0.04695546627044678 354:0.0035031114239245653 355:-0.07691951841115952 356:-0.009292315691709518 357:0.006665308028459549 358:-0.04362916573882103 359:-0.020358435809612274 360:0.02681969851255417 361:-0.032608624547719955 362:-0.02438429929316044 363:-0.015306271612644196 364:-0.08907193690538406 365:0.05589744821190834 366:-0.028828749433159828 367:0.06145160645246506 368:0.08175838738679886 369:-0.06289573758840561 370:0.053040776401758194 371:0.0413169302046299 372:-0.026749731972813606 373:0.014104424975812435 374:-0.05770460516214371 375:-0.033512525260448456 376:-0.05642920732498169 377:-0.046514201909303665 378:0.06350915879011154 379:-0.007458296604454517 380:0.04167577996850014 381:-0.024656686931848526 382:-0.00663722725585103 383:-0.003327145241200924 384:-0.004673842806369066 385:0.0022977006155997515 386:0.095474474132061 387:-0.03487376496195793 388:0.056032273918390274 389:-0.05038614943623543 390:-0.005924698896706104 391:0.09248299151659012 392:0.10015776008367538 393:0.06448733061552048 394:-0.006692170165479183 395:-0.0226210355758667 396:-0.02815941721200943 397:0.12357553094625473 398:0.08674754947423935 399:-0.009359356015920639 400:0.05307659134268761 401:0.017061084508895874 402:0.031260669231414795 403:-0.033933691680431366 404:-0.0005663573392666876 405:-0.020050592720508575 406:-0.01350074540823698 407:0.005295233801007271 408:0.004887626506388187 409:0.016452565789222717 410:-0.010734894312918186 411:0.06585010141134262 412:-0.04801884666085243 413:0.022272365167737007 414:-0.0044685727916657925 415:-0.08825155347585678 416:-0.0325557179749012 417:-0.10740023106336594 418:0.013605644926428795 419:-0.04098135977983475 420:-0.0030848246533423662 421:0.03000137396156788 422:-0.00948568806052208 423:-0.008214494213461876 424:0.009585290215909481 425:-0.02754487283527851 426:0.07196610420942307 427:-0.009644427336752415 428:0.007057464215904474 429:0.031712085008621216 430:-0.009372353553771973 431:-0.013975360430777073 432:-0.06874725967645645 433:-0.07447788864374161 434:0.08101944625377655 435:0.001209768932312727 436:0.023694675415754318 437:0.0033327394630759954 438:0.019397355616092682 439:-0.07439938187599182 440:-0.049430932849645615 441:-0.018616462126374245 442:0.003837896976619959 443:-0.05412835255265236 444:0.0177768524736166 445:-0.027729997411370277 446:-0.02829872816801071 447:0.07279185205698013 448:-0.006696001626551151 449:-0.10737104713916779 450:-0.021558601409196854 451:0.06741894036531448 452:-0.010231844149529934 453:-0.04783925786614418 454:-0.018474334850907326 455:0.006878281943500042 456:0.005896271672099829 457:0.06138314679265022 458:0.06673140823841095 459:-0.015351222828030586 460:0.08147788047790527 461:0.1218014657497406 462:0.036029331386089325 463:0.006623956840485334 464:0.05305333063006401 465:0.0006437956471927464 466:0.005818802863359451 467:-0.02515190653502941 468:-0.04398901388049126 469:0.02031945250928402 470:0.04968637600541115 471:-0.02890748530626297 472:-0.05224725231528282 473:-0.04031054675579071 474:-0.05480624735355377 475:0.01390528678894043 476:0.10977383702993393 477:0.015875203534960747 478:0.022698335349559784 479:0.003862072015181184 480:-0.03171795606613159 481:-0.017344346269965172 482:0.01522759534418583 483:-0.001699877786450088 484:0.032569337636232376 485:-0.03830550238490105 486:-0.060755543410778046 487:-0.010535157285630703 488:-0.03557092696428299 489:-0.010405544191598892 490:0.01719239354133606 491:-0.05328725650906563 492:0.08367010205984116 493:-0.028902186080813408 494:0.03893131762742996 495:-0.0006353866774588823 496:0.02170463465154171 497:-0.0335218720138073 498:0.0029536737129092216 499:0.01943489909172058 500:-0.04226301982998848 501:0.007947155274450779 502:0.05271047353744507 503:0.03712019696831703 504:-0.028449006378650665 505:0.004813964478671551 506:-0.007468149997293949 507:0.0330771766602993 508:-0.012136980891227722 509:-0.006335739511996508 510:-0.04273940250277519 511:-0.08788957446813583
1.0 0.47882957756323774 0:-0.022447779774665833 1:-0.01704207994043827 2:-0.09619166702032089 3:0.01742689125239849 4:0.08384359627962112 5:0.004582133609801531 6:0.009409192018210888 7:0.08105757087469101 8:0.024256160482764244 9:-0.038126394152641296 10:-0.048655152320861816 11:-0.0007747370400466025 12:0.042686834931373596 13:-0.056619126349687576 14:-0.004233469720929861 15:-0.012681684456765652 16:-0.040254924446344376 17:0.04242447763681412 18:0.020356064662337303 19:-0.008481205441057682 20:-0.06994780153036118 21:0.043209996074438095 22:0.00417582131922245 23:-0.07982365787029266 24:0.04673561081290245 25:-0.002983155194669962 26:0.07595794647932053 27:-0.0618809349834919 28:0.059475939720869064 29:-0.03013622760772705 30:-0.02358374558389187 31:0.022694645449519157 32:-0.018541093915700912 33:0.028283096849918365 34:0.03608531877398491 35:-0.019501620903611183 36:0.011880080215632915 37:-0.024239826947450638 38:-0.09087909013032913 39:-0.039204321801662445 40:-0.010668245144188404 41:-0.008265583775937557 42:-0.007756934035569429 43:-0.07049510627985 44:-0.0649845078587532 45:-0.02068370394408703 46:-0.008510244078934193 47:0.03570843115448952 48:-0.08126253634691238 49:-0.013366402126848698 50:-0.006375265773385763 51:-0.035669922828674316 52:0.04215783625841141 53:0.018523072823882103 54:-0.022948235273361206 55:0.03393891826272011 56:0.010187793523073196 57:0.0059659965336322784 58:-0.026287466287612915 59:0.02741728350520134 60:-0.008284440264105797 61:0.05011400580406189 62:0.0016782335005700588 63:0.05100797861814499 64:-0.04090471938252449 65:-0.03906603157520294 66:-0.0054921433329582214 67:-0.01122391689568758 68:0.04418257251381874 69:-0.09494683146476746 70:-0.06836997717618942 71:-0.07528647035360336 72:0.013590552844107151 73:-0.019230522215366364 74:0.05076242983341217 75:-0.0070069595240056515 76:0.0068847257643938065 77:-0.05060097575187683 78:-0.013166324235498905 79:-0.0466897115111351 80:0.047439463436603546 81:-0.012221735902130604 82:0.07112080603837967 83:-0.04667035490274429 84:-0.021118460223078728 85:0.0219682939350605 86:-0.04179644584655762 87:-0.0508774034678936 88:0.010315030813217163 89:0.023881269618868828 90:0.030450506135821342 91:0.0684875100851059 92:0.06675927340984344 93:-0.0342949740588665 94:-0.004495264962315559 95:0.06798764318227768 96:-0.049033403396606445 97:-0.05011603236198425 98:-0.12911085784435272 99:-0.007557680364698172 100:-0.015747111290693283 101:-0.02821567840874195 102:0.06677799671888351 103:0.06605511903762817 104:-0.08539177477359772 105:-0.027816684916615486 106:-0.0024497471749782562 107:-0.05364018678665161 108:-0.007705127354711294 109:0.0019272887147963047 110:-0.017166215926408768 111:0.02920316532254219 112:-0.02201961539685726 113:0.01918496936559677 114:-0.01861685886979103 115:0.017546072602272034 116:-0.022034265100955963 117:0.11083629727363586 118:0.022642815485596657 119:0.07351328432559967 120:0.003962957765907049 121:-0.06256638467311859 122:0.09124904125928879 123:-0.06371887028217316 124:-0.043668173253536224 125:-0.009709756821393967 126:0.03439163789153099 127:-0.09406080842018127 128:-0.08238367736339569 129:-0.03618551045656204 130:0.013414624147117138 131:0.021297208964824677 132:-0.02520858682692051 133:-0.06655529886484146 134:-0.049968421459198 135:0.05621581897139549 136:0.024803292006254196 137:-0.04338877648115158 138:-0.02419314906001091 139:0.003911782056093216 140:-0.05638355016708374 141:0.00944982748478651 142:-0.07863204181194305 143:0.013007387518882751 144:0.053432710468769073 145:-0.013209162279963493 146:-0.014823502860963345 147:0.00034091834095306695 148:0.005577238742262125 149:-0.04409210756421089 150:0.03676797077059746 151:0.011732315644621849 152:-0.03297329694032669 153:0.03227169066667557 154:0.03890380263328552 155:-0.007169164717197418 156:-0.021082481369376183 157:0.05662526562809944 158:-0.0002213736152043566 159:0.027013834565877914 160:0.05085991322994232 161:0.03889956697821617 162:-0.018587909638881683 163:-0.0853579118847847 164:0.013736004941165447 165:0.016107000410556793 166:-0.055109135806560516 167:-0.004538079258054495 168:-0.05396213382482529 169:0.06695402413606644 170:-0.016150156036019325 171:0.053616128861904144 172:0.05161675438284874 173:-0.002151811495423317 174:0.05686301738023758 175:-0.045928530395030975 176:0.015015898272395134 177:-0.03521429002285004 178:-0.11712779849767685 179:0.010325281880795956 180:0.012153701856732368 181:0.10905060917139053 182:-0.04949507489800453 183:-0.00978708267211914 184:0.0277089923620224 185:0.019862934947013855 186:0.056069038808345795 187:-0.04445284605026245 188:0.03579377382993698 189:0.015640201047062874 190:-0.026020685210824013 191:0.04386062175035477 192:0.06009436771273613 193:-0.047300249338150024 194:-0.00454991078004241 195:0.006178284529596567 196:-0.0011743984650820494 197:0.05954606458544731 198:0.007040107157081366 199:-0.023993201553821564 200:0.010740594938397408 201:-0.04308610409498215 202:0.019818374887108803 203:-0.007810165174305439 204:-0.029227489605545998 205:0.003134992206469178 206:0.01885543204843998 207:0.0006036987178958952 208:0.013504283502697945 209:0.09566503018140793 210:0.023739159107208252 211:-0.02179805189371109 212:-0.06855360418558121 213:0.01768425479531288 214:-0.0043019182048738 215:0.024051863700151443 216:-0.05970672145485878 217:0.04361516982316971 218:-0.03124943934381008 219:-0.007600598502904177 220:-0.017910180613398552 221:-0.0016160887898877263 222:-0.012790263630449772 223:-0.009240810759365559 224:0.009382322430610657 225:0.041554924100637436 226:0.008478661067783833 227:-0.034404587000608444 228:-0.014676290564239025 229:0.015850981697440147 230:0.014747555367648602 231:0.0020929675083607435 232:0.027306636795401573 233:-0.048801448196172714 234:-0.04446115717291832 235:0.044130124151706696 236:-0.04315623268485069 237:-0.042675312608480453 238:-0.01110904198139906 239:0.013894136063754559 240:-0.05554811656475067 241:-0.05253903567790985 242:-0.08378808945417404 243:-0.049862317740917206 244:-0.018675101920962334 245:0.08125773817300797 246:-0.029345285147428513 247:-0.041773974895477295 248:0.008921737782657146 249:0.04876658692955971 250:-0.015102856792509556 251:-0.00627740565687418 252:0.027444638311862946 253:0.04011640325188637 254:-0.0013494305312633514 255:-0.01122627966105938 256:-0.0036153460387140512 257:0.026258869096636772 258:0.026065345853567123 259:0.013013781979680061 260:0.0007770151132717729 261:0.022899067029356956 262:0.004839934874325991 263:-0.050339099019765854 264:-0.016882067546248436 265:-0.04026263952255249 266:-0.014763138256967068 267:0.019352339208126068 268:-0.03942924365401268 269:-0.01569719985127449 270:-0.009131231345236301 271:-0.013190381228923798 272:0.025714118033647537 273:-0.06573254615068436 274:0.06666159629821777 275:0.06601861119270325 276:0.01181795448064804 277:-0.007966854609549046 278:-0.014378361403942108 279:0.10691995173692703 280:-0.034530702978372574 281:0.054794762283563614 282:-0.09150449931621552 283:-0.02250690571963787 284:-0.135076642036438 285:-0.018637459725141525 286:0.0007650715415365994 287:0.014113049022853374 288:0.00365626672282815 289:-0.010876471176743507 290:-0.03630872070789337 291:-0.08798114210367203 292:-0.05092158913612366 293:0.009706413373351097 294:-0.022708233445882797 295:-0.013490866869688034 296:0.056347303092479706 297:-0.016124669462442398 298:-0.033111654222011566 299:0.041609976440668106 300:-0.008381925523281097 301:-0.005243675783276558 302:0.0659429207444191 303:0.030931688845157623 304:-0.010213222354650497 305:-0.050965964794158936 306:0.007681863848119974 307:0.0059907929971814156 308:-0.08863954991102219 309:-0.07460303604602814 310:-0.06578920781612396 311:0.05708302557468414 312:-0.009366159327328205 313:0.027289273217320442 314:0.04306212440133095 315:0.06463776528835297 316:-0.010436681099236012 317:-0.004509818274527788 318:0.06556647270917892 319:-0.0028043556958436966 320:0.08456242084503174 321:-0.0711825042963028 322:0.04087448865175247 323:0.047900762408971786 324:0.02509497106075287 325:-0.007571114692837 326:0.06227806583046913 327:0.00034311029594391584 328:-0.030788607895374298 329:-0.024384137243032455 330:0.05141288787126541 331:-0.023090055212378502 332:0.04185356944799423 333:0.0011287089437246323 334:-0.0601925291121006 335:0.04511171579360962 336:0.07388215512037277 337:-0.0239539947360754 338:0.010360588319599628 339:0.02795875258743763 340:0.03752400353550911 341:-0.002748057246208191 342:-0.011941911652684212 343:-0.05277377367019653 344:0.07367363572120667 345:-0.08023101836442947 346:-0.010968157090246677 347:0.1329934149980545 348:-0.027926107868552208 349:0.03761916235089302 350:-0.03710507974028587 351:0.036046404391527176 352:-0.0045852079056203365 353:-0.013710207305848598 354:-0.06362604349851608 355:-0.009566131047904491 356:0.05385024473071098 357:-0.031602051109075546 358:-0.0028670495375990868 359:0.013566412031650543 360:0.051325783133506775 361:-0.05907542258501053 362:-0.02377213165163994 363:0.0049495454877614975 364:-0.014383605681359768 365:0.05533149465918541 366:0.006065002176910639 367:-0.012429682537913322 368:0.02962762676179409 369:0.021135276183485985 370:-0.019158685579895973 371:-0.0037214048206806183 372:-0.025031497702002525 373:-0.011021390557289124 374:-0.06331178545951843 375:0.03098205290734768 376:0.007751573342829943 377:-0.03253105282783508 378:-0.015146818943321705 379:-0.0002753042208496481 380:-0.06277909874916077 381:0.02542661875486374 382:0.08622339367866516 383:-0.055302489548921585 384:-0.005755510181188583 385:-0.0800124853849411 386:-0.06062612310051918 387:0.013814392499625683 388:0.025420082733035088 389:-0.06520753353834152 390:-0.008901513181626797 391:0.010953194461762905 392:-0.052995529025793076 393:-0.06733514368534088 394:0.05990679934620857 395:0.016315001994371414 396:0.08049289882183075 397:0.08940683305263519 398:0.06115593761205673 399:-0.011841541156172752 400:-0.09380581229925156 401:0.01479278039187193 402:-0.06802420318126678 403:0.02646348439157009 404:-0.011112098582088947 405:0.011254027485847473 406:-0.038452912122011185 407:0.007725708186626434 408:0.0641990453004837 409:0.039260223507881165 410:-0.0008441015379503369 411:0.03836195170879364 412:0.046369265764951706 413:-0.03725693002343178 414:-0.04732703045010567 415:-0.054147928953170776 416:0.02893598936498165 417:0.010897661559283733 418:-0.011452744714915752 419:-0.036249205470085144 420:-0.03577403351664543 421:0.055789388716220856 422:-0.009684598073363304 423:0.0674835667014122 424:0.01748375967144966 425:0.020912647247314453 426:-0.050320815294981 427:0.00702249351888895 428:0.003607809776440263 429:-0.03189825639128685 430:-0.020247383043169975 431:-0.029472559690475464 432:-0.019325396046042442 433:-2.2822969469871168e-07 434:-0.043566685169935226 435:-0.04193728044629097 436:0.04840455576777458 437:-0.08641272038221359 438:-0.03360169753432274 439:-0.06048387289047241 440:-0.07394722104072571 441:-0.03551831841468811 442:-0.048476919531822205 443:-0.037126392126083374 444:-0.015253130346536636 445:0.05450672656297684 446:-0.04078026860952377 447:0.013265828602015972 448:-0.05402452126145363 449:-0.025533676147460938 450:0.024554962292313576 451:0.005468942690640688 452:0.023778311908245087 453:-0.06725330650806427 454:-0.011484909802675247 455:-0.03355344757437706 456:0.02713726833462715 457:0.030444039031863213 458:0.04388879984617233 459:0.07595428079366684 460:0.029128804802894592 461:0.08239611983299255 462:-0.04902465641498566 463:-0.002527498872950673 464:0.05928434431552887 465:0.05400887504220009 466:0.008286511525511742 467:-0.1273810863494873 468:0.025044400244951248 469:-0.027097472921013832 470:-0.022990284487605095 471:-0.029050184413790703 472:-0.034164149314165115 473:0.05642097070813179 474:-0.009983332827687263 475:0.04120280221104622 476:0.03103134036064148 477:0.033755164593458176 478:-0.001484133768826723 479:-0.00833186972886324 480:0.08017454296350479 481:-0.045428305864334106 482:0.0245384331792593 483:-0.009590455330908298 484:-0.006506756879389286 485:0.01688418537378311 486:-0.07584834098815918 487:-0.04403103142976761 488:-0.09336895495653152 489:0.06480403244495392 490:-0.07183332741260529 491:-0.06811030209064484 492:0.02234799601137638 493:-0.04124140366911888 494:0.11074700206518173 495:-0.06792347133159637 496:-0.04290388524532318 497:-0.023970812559127808 498:-0.02479112334549427 499:-0.026665009558200836 500:-0.01147049106657505 501:-0.11545365303754807 502:-0.01564157009124756 503:-0.03834099695086479 504:0.0437876395881176 505:0.002403577556833625 506:0.001905132201500237 507:0.0223487950861454 508:0.06936435401439667 509:-0.05120781064033508 510:-0.004190113395452499 511:-0.05157119408249855
0.08393018869931272 0.0 0:-0.027218492701649666 1:-0.03611094877123833 2:-0.03843056783080101 3:-0.008697858080267906 4:-0.02547135204076767 5:0.05439436063170433 6:-0.003021328244358301 7:0.02583102509379387 8:-0.04790615662932396 9:0.03750329837203026 10:-0.03967732936143875 11:0.009569992311298847 12:-0.04661749303340912 13:-0.016478214412927628 14:0.003690997837111354 15:-0.009010610170662403 16:-0.028674134984612465 17:-0.014282389543950558 18:0.023400163277983665 19:-0.06044599413871765 20:-0.002909979084506631 21:-0.030352994799613953 22:-0.0007174358470365405 23:0.02702457085251808 24:0.01522881630808115 25:-0.014831836335361004 26:-0.03117949329316616 27:0.014353134669363499 28:-0.03151773288846016 29:0.018870258703827858 30:-0.05860157683491707 31:-0.01275724358856678 32:0.012603167444467545 33:0.05426820367574692 34:-0.02711145021021366 35:-0.0045175207778811455 36:0.00460572587326169 37:0.035829685628414154 38:-0.05078362300992012 39:0.03571503236889839 40:0.010644134134054184 41:0.09879899024963379 42:0.004383663646876812 43:0.059711504727602005 44:-0.0042425417341291904 45:0.02747805416584015 46:0.024560242891311646 47:0.04341070353984833 48:-0.07829348742961884 49:0.0013253738870844245 50:-0.02087509073317051 51:0.06577000021934509 52:0.05737641826272011 53:-0.0017418245552107692 54:-9.065907215699553e-05 55:0.07395590096712112 56:0.026839133352041245 57:0.059276796877384186 58:0.00729305949062109 59:0.009595615789294243 60:-0.028152016922831535 61:0.04492552578449249 62:-0.04019233211874962 63:-0.11565271019935608 64:0.017108755186200142 65:0.06210142374038696 66:0.0049813357181847095 67:0.015524627640843391 68:-0.025736641138792038 69:-0.00882748793810606 70:-0.01687316782772541 71:0.004780324175953865 72:-0.01757601648569107 73:0.01669984683394432 74:0.04044898599386215 75:0.05456813424825668 76:-0.037899408489465714 77:0.05551951751112938 78:-0.03305305168032646 79:0.019287001341581345 80:-0.02507728338241577 81:-0.0156435314565897 82:0.037369292229413986 83:0.03314167633652687 84:-0.016635367646813393 85:0.021615438163280487 86:-0.04230722412467003 87:0.021254966035485268 88:-0.07888750731945038 89:-0.0082058385014534 90:0.022674228996038437 91:-0.025479579344391823 92:0.004390922375023365 93:-0.047510042786598206 94:0.019791241735219955 95:-0.016594335436820984 96:0.021188287064433098 97:-0.022907892242074013 98:0.023832160979509354 99:0.06378356367349625 100:0.023790806531906128 101:-0.026296136900782585 102:3.253882459830493e-05 103:-0.0006371393683366477 104:0.0023809606209397316 105:0.03689289465546608 106:-0.02599775232374668 107:-0.015828749164938927 108:-0.056877657771110535 109:-0.07577786594629288 110:-0.00043258696678094566 111:0.044258665293455124 112:-0.04363713040947914 113:-0.05629124492406845 114:-0.010200351476669312 115:0.06548105925321579 116:0.042444583028554916 117:0.014254720881581306 118:0.007278305944055319 119:-0.007172063924372196 120:-0.05116482079029083 121:0.01989833638072014 122:0.07238509505987167 123:0.011215352453291416 124:0.0485457181930542 125:0.0010749235516414046 126:-0.0009691306622698903 127:0.01270363200455904 128:0.01896815188229084 129:-0.06586021184921265 130:-0.06497822701931 131:0.012220364063978195 132:0.07802589237689972 133:-0.016101153567433357 134:-0.02348444238305092 135:-0.03670278191566467 136:0.04589201882481575 137:-0.0001885935926111415 138:-0.004146410617977381 139:0.0035012715961784124 140:-0.03518104925751686 141:-0.0462736077606678 142:0.017941871657967567 143:0.00909655261784792 144:0.03349434584379196 145:-0.0012142653577029705 146:-0.05718930810689926 147:0.017063578590750694 148:-0.023490050807595253 149:-0.002813507802784443 150:0.007295189891010523 151:-0.07314955443143845 152:-0.0823882445693016 153:-0.006320469081401825 154:-0.01189375389367342 155:0.019918089732527733 156:0.01015669945627451 157:0.10494711995124817 158:-0.002938967663794756 159:-0.022874096408486366 160:0.06329942494630814 161:0.03371061012148857 162:-0.07327494770288467 163:0.01964513398706913 164:0.05638915300369263 165:0.11763522773981094 166:-0.04700075462460518 167:-0.0548841618001461 168:-0.03192420303821564 169:0.07612783461809158 170:0.01521192118525505 171:0.021668298169970512 172:0.012160602025687695 173:-0.07227364927530289 174:0.01987462304532528 175:-0.02949271909892559 176:0.12667959928512573 177:-0.024997830390930176 178:-0.11940236389636993 179:-0.07079207897186279 180:0.024913016706705093 181:0.014329727739095688 182:0.05765645578503609 183:0.04465562105178833 184:-0.002389270579442382 185:0.0011573961237445474 186:0.023059211671352386 187:-0.007624153513461351 188:0.047441013157367706 189:-0.03867170214653015 190:0.0504106804728508 191:0.01364380493760109 192:0.0845445990562439 193:-0.017351975664496422 194:-0.03217944875359535 195:0.009357697330415249 196:0.05104389414191246 197:0.06869032233953476 198:-0.10792003571987152 199:0.06912102550268173 200:-0.013377883471548557 201:0.052974723279476166 202:0.039278119802474976 203:-0.09334060549736023 204:-0.01594345085322857 205:0.03587479144334793 206:-0.0624014250934124 207:-0.010036683641374111 208:0.011212820187211037 209:0.04739923030138016 210:0.0467371791601181 211:-0.0021212780848145485 212:-0.007033342029899359 213:0.004913598299026489 214:0.008214039728045464 215:0.011746576987206936 216:-0.004883984569460154 217:-0.03112855926156044 218:-0.03820088133215904 219:-0.0001878897746792063 220:-0.03233436867594719 221:-0.06859300285577774 222:-0.01463400386273861 223:-0.09726174920797348 224:-0.06439436972141266 225:-0.00902608036994934 226:0.035535261034965515 227:-0.005040564574301243 228:-0.02994203381240368 229:0.05087388679385185 230:-0.015198547393083572 231:0.08767976611852646 232:-0.09527049213647842 233:-0.056696273386478424 234:0.049522578716278076 235:0.015274522826075554 236:0.09229748696088791 237:-0.04320736974477768 238:-0.035563476383686066 239:-0.004679197911173105 240:0.001877258880995214 241:0.019735312089323997 242:-0.044327616691589355 243:0.04902752861380577 244:-0.022708937525749207 245:0.0318513959646225 246:0.02525663562119007 247:0.07092119008302689 248:-0.054586026817560196 249:-0.01289134006947279 250:0.06115816533565521 251:0.07986770570278168 252:0.035891756415367126 253:0.007784529589116573 254:0.04364980757236481 255:0.05634206160902977 256:-0.04174325242638588 257:0.02333986572921276 258:0.04027877002954483 259:0.09047737717628479 260:0.028927985578775406 261:-0.04224337637424469 262:-0.00031474456773139536 263:0.06966759264469147 264:-0.12893392145633698 265:0.009345554746687412 266:0.011255234479904175 267:-0.011681661941111088 268:-0.027867300435900688 269:0.017307288944721222 270:-0.06631848961114883 271:0.007730370387434959 272:-0.10396989434957504 273:0.010302631184458733 274:-0.0075602116994559765 275:-0.08016692847013474 276:-0.04364287108182907 277:0.010118206962943077 278:-0.030095374211668968 279:-0.022198311984539032 280:0.013469289056956768 281:-0.004685448482632637 282:-0.047287795692682266 283:-0.0593036524951458 284:-0.03683462738990784 285:0.006472492124885321 286:0.04516381025314331 287:-0.05777330324053764 288:-0.03458049148321152 289:-0.06943408399820328 290:0.03490658104419708 291:0.013062814250588417 292:0.03125511109828949 293:0.059150852262973785 294:0.02049448899924755 295:-0.02120978571474552 296:0.011432922445237637 297:0.03786922246217728 298:0.0037602426018565893 299:0.05046208202838898 300:0.02523186057806015 301:-0.016728857532143593 302:0.06438044458627701 303:0.02553846687078476 304:0.05961088463664055 305:0.0005058653187006712 306:0.023120000958442688 307:0.005952091421931982 308:0.03354266658425331 309:-0.04004882276058197 310:-0.054384682327508926 311:0.007725242059677839 312:-0.0070702871307730675 313:0.021457543596625328 314:0.028455471619963646 315:-0.002194350818172097 316:-0.06682423502206802 317:-0.0001817767188185826 318:0.00413838354870677 319:0.03276875987648964 320:0.0045176912099123 321:0.034599728882312775 322:-0.039257992058992386 323:-0.011893585324287415 324:-0.04690839722752571 325:0.027310168370604515 326:0.0017294605495408177 327:-0.06959342211484909 328:-0.029315996915102005 329:0.06134361773729324 330:-0.039389725774526596 331:-0.026323532685637474 332:-0.05122524872422218 333:0.0418788306415081 334:-0.011959596537053585 335:0.005142121110111475 336:-0.0019340175203979015 337:0.02428029663860798 338:-0.022418087348341942 339:0.033627334982156754 340:-0.020924754440784454 341:0.034591492265462875 342:0.07893197983503342 343:-0.00012665247777476907 344:-0.06890222430229187 345:-0.08714687824249268 346:0.007098021451383829 347:0.060587361454963684 348:0.03711859509348869 349:0.05180485546588898 350:-0.031076643615961075 351:0.07663824409246445 352:-0.006819022353738546 353:-0.00521156657487154 354:-0.03670123592019081 355:-0.016336342319846153 356:0.044564682990312576 357:-0.015038395300507545 358:-0.06611790508031845 359:0.018327241763472557 360:-0.017716433852910995 361:0.009921214543282986 362:-0.05285479128360748 363:-0.02750847302377224 364:-0.07869882136583328 365:0.09657035768032074 366:0.01284403633326292 367:0.033232953399419785 368:0.011862293817102909 369:-0.008244211785495281 370:0.022916549816727638 371:0.044682517647743225 372:0.022268570959568024 373:0.0064715188927948475 374:-0.021795084699988365 375:-0.02076680026948452 376:-0.012994293123483658 377:-0.13011156022548676 378:0.05024661496281624 379:-0.037559352815151215 380:0.011637430638074875 381:-0.06480672955513 382:-0.012283336371183395 383:0.00010454563016537577 384:-0.022129271179437637 385:0.008574646897614002 386:0.09839042276144028 387:-0.11356891691684723 388:0.023854495957493782 389:-0.029991328716278076 390:0.011785862036049366 391:0.08558880537748337 392:0.06373445689678192 393:-0.020922694355249405 394:0.009890133515000343 395:0.020493628457188606 396:0.044221118092536926 397:0.006741296034306288 398:0.09500174969434738 399:0.014609606936573982 400:0.009575516916811466 401:0.08483858406543732 402:0.01683046668767929 403:-0.041618190705776215 404:-0.05697925388813019 405:-0.027154019102454185 406:0.03994949162006378 407:-0.02996709756553173 408:0.026046259328722954 409:0.045854602009058 410:-0.04208226501941681 411:-0.026222696527838707 412:-0.0073177870362997055 413:-0.01061299629509449 414:-0.06241349130868912 415:-0.018268879503011703 416:-0.018489733338356018 417:-0.07556114345788956 418:0.040543388575315475 419:-0.017114289104938507 420:0.0009090841049328446 421:0.05300823226571083 422:-0.02256891503930092 423:0.03033500164747238 424:0.014891400933265686 425:-0.05397333949804306 426:0.05032464489340782 427:-0.013679631054401398 428:0.026135120540857315 429:-0.0014188943896442652 430:0.04986393824219704 431:0.017662744969129562 432:0.0022173572797328234 433:-0.032135337591171265 434:-0.02427142672240734 435:-0.02750076726078987 436:0.07365007698535919 437:0.05788908898830414 438:0.00703884894028306 439:-0.08160077780485153 440:-0.0792979970574379 441:-0.011120066046714783 442:0.007750863209366798 443:0.004891081713140011 444:0.07316754758358002 445:0.023949047550559044 446:0.005894335452467203 447:0.007008381187915802 448:-0.07606510072946548 449:-0.09056005626916885 450:-0.0022323427256196737 451:0.06260717660188675 452:0.04390006884932518 453:-0.08556913584470749 454:0.0014042534166947007 455:-0.04560871049761772 456:0.10237933695316315 457:0.08751972019672394 458:0.0822025015950203 459:-0.024722732603549957 460:0.0362832173705101 461:0.08333943784236908 462:-0.004518776200711727 463:-0.06417878717184067 464:0.07660895586013794 465:-0.012669924646615982 466:-0.08179903775453568 467:0.01605178602039814 468:-0.014056614600121975 469:-0.02742813341319561 470:-0.006989326793700457 471:-0.010555916465818882 472:-0.025141362100839615 473:-0.004779086913913488 474:-0.03645914047956467 475:-0.039609670639038086 476:0.08551667630672455 477:0.020516594871878624 478:0.02162432111799717 479:0.0595630519092083 480:0.02500263601541519 481:-0.020914820954203606 482:0.010197634808719158 483:4.832496779272333e-05 484:0.08266712725162506 485:0.048467617481946945 486:-0.06703948974609375 487:-0.07586216181516647 488:0.012541448697447777 489:0.037536099553108215 490:-0.04219735786318779 491:-0.011516064405441284 492:0.02417026460170746 493:0.017249545082449913 494:0.04750857129693031 495:-0.006708391942083836 496:0.032751020044088364 497:-0.02940179593861103 498:-0.0028218068182468414 499:0.02402830496430397 500:-0.11292445659637451 501:0.007042883429676294 502:0.0393928699195385 503:0.057512033730745316 504:-0.043403320014476776 505:-0.014291539788246155 506:0.025210419669747353 507:0.08588825911283493 508:0.0377579964697361 509:0.04534987360239029 510:-0.06549010425806046 511:-0.08997686952352524
0.0 0.31323396636108625 0:0.006269578821957111 1:0.029831476509571075 2:-0.04715695604681969 3:-0.03269033133983612 4:0.04620858654379845 5:0.005741498898714781 6:-0.005359929986298084 7:0.030742432922124863 8:-0.034333571791648865 9:0.07741538435220718 10:-0.06813754141330719 11:-0.04000917449593544 12:-0.04733685404062271 13:-0.021061407402157784 14:0.011708788573741913 15:-0.028948267921805382 16:-0.06637489795684814 17:0.011455031111836433 18:0.05145424231886864 19:-0.04524075612425804 20:-0.023632951080799103 21:0.045274779200553894 22:-0.03069409169256687 23:0.00727976905182004 24:0.028801362961530685 25:-0.010077451355755329 26:-0.01185351051390171 27:-0.03482239320874214 28:-0.0054295239970088005 29:-0.03709041327238083 30:0.00042438830132596195 31:0.024709220975637436 32:0.053925689309835434 33:0.10720116645097733 34:0.0400226004421711 35:-0.027488047257065773 36:0.01197775173932314 37:0.029762528836727142 38:-0.058982912451028824 39:-0.002537934575229883 40:-0.020576665177941322 41:0.06451943516731262 42:0.06894422322511673 43:0.06187310442328453 44:-0.049010612070560455 45:-0.0022662945557385683 46:-0.060794614255428314 47:0.022194955497980118 48:-0.12207666784524918 49:-6.700593075947836e-05 50:0.003298430237919092 51:0.015649544075131416 52:0.07883620262145996 53:-0.0257211122661829 54:-0.017405260354280472 55:0.014632520265877247 56:0.014891703613102436 57:0.022519022226333618 58:-0.030317308381199837 59:-0.024570155888795853 60:-0.007111061364412308 61:0.0704626590013504 62:-0.003095547668635845 63:-0.08698180317878723 64:-0.014766479842364788 65:-0.08549850434064865 66:-0.041602469980716705 67:0.04344614967703819 68:-0.01718592830002308 69:0.05636592209339142 70:-0.0090295085683465 71:-0.04719234257936478 72:-0.0640023872256279 73:-0.010482175275683403 74:0.09617934376001358 75:0.0017275698482990265 76:-0.04067336395382881 77:0.08452341705560684 78:0.002087815199047327 79:-0.03859815374016762 80:0.028099754825234413 81:0.026350678876042366 82:-0.0502217561006546 83:-0.014999101869761944 84:-0.056278035044670105 85:0.039864592254161835 86:-0.04062619060277939 87:0.011106124147772789 88:-0.08127505332231522 89:-0.011223005130887032 90:0.03802408650517464 91:-0.022262757644057274 92:0.018643656745553017 93:-0.060683656483888626 94:0.04840534180402756 95:-0.005975400563329458 96:0.05181887745857239 97:0.0009509345982223749 98:-0.02755734696984291 99:0.016124751418828964 100:0.04775378480553627 101:0.049979016184806824 102:0.0014598761918023229 103:-0.0006482033641077578 104:-0.046562399715185165 105:-0.023725442588329315 106:-0.018934233114123344 107:-0.00022323757002595812 108:0.006976041942834854 109:-0.008099769242107868 110:0.012817684561014175 111:-0.00039551680674776435 112:-0.0009257874917238951 113:-0.08120235800743103 114:-0.0026378147304058075 115:0.07088933140039444 116:0.04050731658935547 117:0.06009698659181595 118:0.003910178784281015 119:0.04892881587147713 120:-0.049718260765075684 121:0.022346628829836845 122:0.03505042567849159 123:0.008168972097337246 124:-0.03113928623497486 125:0.049289584159851074 126:0.055281318724155426 127:-0.030216658487915993 128:0.012498022057116032 129:0.019483091309666634 130:-0.04026075452566147 131:0.018699023872613907 132:0.08933896571397781 133:-0.04171660542488098 134:0.01501184981316328 135:-0.02451004832983017 136:0.07979405671358109 137:-0.027330635115504265 138:-0.03998381644487381 139:-0.004995080642402172 140:-0.051213350147008896 141:-0.04495541751384735 142:-0.0062600853852927685 143:-0.0133869219571352 144:0.017743511125445366 145:-0.022884493693709373 146:-0.012749959714710712 147:0.01896383985877037 148:0.01663903146982193 149:-0.06510498374700546 150:0.002937613520771265 151:-0.036540113389492035 152:-0.05559994652867317 153:-0.01617838628590107 154:0.007449723780155182 155:0.017039800062775612 156:-0.08984099328517914 157:0.09699700772762299 158:0.057233039289712906 159:-0.0525597520172596 160:-0.008601289242506027 161:0.0497439019382 162:-0.023768091574311256 163:0.028478603810071945 164:0.01992666721343994 165:0.054167162626981735 166:-0.08778263628482819 167:0.006187369581311941 168:-0.03902706131339073 169:0.08790183067321777 170:0.04246930032968521 171:-0.02393113262951374 172:-0.0055277119390666485 173:0.018912795931100845 174:0.030790330842137337 175:-0.0028049557004123926 176:0.054251834750175476 177:0.039126332849264145 178:-0.11727678030729294 179:-0.059423428028821945 180:-0.012450436130166054 181:0.0383160337805748 182:0.04071405902504921 183:0.01955150067806244 184:0.07530736923217773 185:0.01021751668304205 186:0.08396231383085251 187:0.0020390970166772604 188:0.08835265785455704 189:0.03535450994968414 190:0.08720432221889496 191:0.01674157939851284 192:0.08464125543832779 193:-0.011014610528945923 194:-0.003412484424188733 195:-0.014553306624293327 196:-0.019810518249869347 197:0.06374010443687439 198:-0.029512854292988777 199:0.03941668942570686 200:0.041471999138593674 201:-0.011398199945688248 202:0.06438055634498596 203:-0.0596901997923851 204:-0.0015608720714226365 205:0.03183124214410782 206:0.017988644540309906 207:-0.00947054848074913 208:0.009064730256795883 209:0.049807727336883545 210:-0.018181854858994484 211:-0.0388503298163414 212:-0.011604391038417816 213:0.023418180644512177 214:0.06758928298950195 215:0.022861018776893616 216:0.0758352130651474 217:-0.05294213816523552 218:-0.0005019027157686651 219:-0.005357983987778425 220:-0.022732913494110107 221:-0.029858071357011795 222:-0.019901372492313385 223:0.03035660833120346 224:-0.019367210566997528 225:-0.0694814994931221 226:0.06341416388750076 227:-0.04499189928174019 228:-0.03336817026138306 229:0.032900672405958176 230:0.00907425582408905 231:0.07501225918531418 232:-0.007991370745003223 233:-0.027855420485138893 234:0.026013033464550972 235:-0.013488148339092731 236:0.04085022583603859 237:-0.025063134729862213 238:0.03308232128620148 239:-0.02276204526424408 240:-0.04321202635765076 241:-0.03999657556414604 242:-0.08474625647068024 243:0.011829766444861889 244:-0.0325353629887104 245:0.042817626148462296 246:0.09748032689094543 247:0.019738664850592613 248:-0.019748825579881668 249:0.09997131675481796 250:0.009351365268230438 251:-0.0032284941989928484 252:0.057850297540426254 253:-0.010945012792944908 254:-0.037682902067899704 255:0.011660800315439701 256:-0.02675696834921837 257:0.03951846435666084 258:0.0268410611897707 259:0.012782720848917961 260:-0.03857612982392311 261:-0.00041247037006542087 262:0.005308904219418764 263:-0.0006055948324501514 264:-0.04950311779975891 265:-0.05895532667636871 266:-0.020908793434500694 267:0.03197995573282242 268:-0.0008226355421356857 269:-0.002890676958486438 270:0.05554476007819176 271:0.0184087622910738 272:-0.07911492139101028 273:0.022544004023075104 274:-0.01811363734304905 275:-0.04473486915230751 276:0.001006163191050291 277:0.049968864768743515 278:-0.006572243291884661 279:0.04671510308980942 280:0.0004365371714811772 281:-0.00820257980376482 282:0.025351785123348236 283:-0.06260106712579727 284:-0.024106033146381378 285:-0.022413339465856552 286:0.04132331535220146 287:-0.07850926369428635 288:-0.007677330635488033 289:-0.02281944267451763 290:-0.009615126065909863 291:0.0037765272427350283 292:-0.010697564110159874 293:0.06517009437084198 294:0.02857077121734619 295:-0.07897552102804184 296:0.02881692908704281 297:0.017122669145464897 298:0.013674847781658173 299:0.04003017395734787 300:-0.007724458817392588 301:0.008283549919724464 302:-0.03074011206626892 303:0.05604831129312515 304:0.07103754580020905 305:0.027977602556347847 306:0.0005722369533032179 307:0.014222857542335987 308:0.03650038689374924 309:0.012904224917292595 310:-0.08596636354923248 311:0.08849235624074936 312:-0.021233461797237396 313:0.08169878274202347 314:0.07150419056415558 315:-0.02911798469722271 316:0.014137805439531803 317:-0.036529235541820526 318:0.05113234370946884 319:-0.060622572898864746 320:0.032900791615247726 321:-0.02933342754840851 322:-0.04198574647307396 323:-0.03551849350333214 324:-0.09854276478290558 325:0.07436338812112808 326:-0.03268691152334213 327:-0.04136958718299866 328:-0.04536988213658333 329:-0.018555089831352234 330:-0.0621919222176075 331:0.01668500155210495 332:-0.05143069475889206 333:0.015233810991048813 334:-0.06818047910928726 335:0.05623544007539749 336:-0.030545827001333237 337:-0.009391541592776775 338:-0.05400580167770386 339:-0.005962290335446596 340:-0.051286034286022186 341:0.07461418956518173 342:0.04649646207690239 343:-0.013011264614760876 344:-0.020208168774843216 345:-0.05471203103661537 346:-0.02243560180068016 347:0.040343768894672394 348:0.041004911065101624 349:0.042806290090084076 350:-0.10063816606998444 351:0.06788458675146103 352:-0.029626069590449333 353:0.07055128365755081 354:-0.019010473042726517 355:-0.07515749335289001 356:0.03159772977232933 357:-0.015789389610290527 358:0.009673738852143288 359:-0.024998461827635765 360:0.00956425815820694 361:-0.05502653867006302 362:-0.034419771283864975 363:-0.02005595900118351 364:-0.09055625647306442 365:0.09108193963766098 366:-0.031379178166389465 367:0.04613085463643074 368:0.07662716507911682 369:-0.019109660759568214 370:0.003956669941544533 371:0.045998465269804 372:-0.06147627905011177 373:0.013952188193798065 374:-0.05081012472510338 375:-0.020919449627399445 376:-0.031185124069452286 377:-0.06306318938732147 378:0.07404383271932602 379:0.0035258890129625797 380:0.05714840069413185 381:-0.04833592474460602 382:0.021383659914135933 383:-0.008094361051917076 384:-0.002695686649531126 385:-0.0069420901127159595 386:0.04657798632979393 387:-0.025645209476351738 388:0.055465005338191986 389:-0.029000023379921913 390:-0.029533347114920616 391:0.0779099091887474 392:0.11318427324295044 393:0.033454250544309616 394:0.006100944243371487 395:-0.02598956972360611 396:-0.01762218214571476 397:0.10644495487213135 398:0.0978766530752182 399:-0.012265032157301903 400:0.04959482327103615 401:-0.004440390504896641 402:0.03954334184527397 403:-0.04138108715415001 404:0.03370590880513191 405:-0.029240809381008148 406:-0.023481616750359535 407:0.017820606008172035 408:0.04219340160489082 409:0.012226900085806847 410:0.02179970033466816 411:0.05284839868545532 412:-0.026320237666368484 413:-0.010885988362133503 414:-0.03309542313218117 415:-0.06907732039690018 416:-0.0074064661748707294 417:-0.09794959425926208 418:-0.0017206218326464295 419:-0.01599959470331669 420:-0.01629560999572277 421:0.021059494465589523 422:-0.00014533479406964034 423:0.04878099262714386 424:0.017325855791568756 425:0.0043722218833863735 426:0.0625469982624054 427:-0.002302837325260043 428:-0.03788793087005615 429:0.031371742486953735 430:-2.062277781078592e-05 431:-0.0205654539167881 432:-0.09313970804214478 433:-0.08408954739570618 434:0.09164123237133026 435:0.02921244315803051 436:0.015650281682610512 437:-0.04493913799524307 438:-0.028155025094747543 439:-0.08245614916086197 440:-0.05378863587975502 441:-0.06190146133303642 442:0.018955079838633537 443:-0.01949753426015377 444:0.046780556440353394 445:-0.0583253838121891 446:-0.058882199227809906 447:0.07699088007211685 448:-0.02685006894171238 449:-0.07998473942279816 450:0.009930137544870377 451:0.059237368404865265 452:-0.03420553728938103 453:-0.05189641937613487 454:-0.017975464463233948 455:-0.011272132396697998 456:-0.025447595864534378 457:0.06232953444123268 458:0.08320565521717072 459:0.004516243934631348 460:0.07179778814315796 461:0.13631315529346466 462:0.012486698105931282 463:0.0031664378475397825 464:0.05104261264204979 465:0.022638661786913872 466:0.005545895081013441 467:-0.03123345784842968 468:-0.033146075904369354 469:0.030529962852597237 470:0.023033099249005318 471:-0.05361137539148331 472:-0.08586125820875168 473:-0.031663741916418076 474:-0.05515972152352333 475:0.010059095919132233 476:0.05443473532795906 477:0.018853362649679184 478:0.05666936933994293 479:0.015203145332634449 480:-0.01002926379442215 481:-0.03500790521502495 482:0.007161573972553015 483:0.01162803079932928 484:0.036587513983249664 485:-0.05112530291080475 486:-0.055707190185785294 487:-0.007929867133498192 488:-0.03105294518172741 489:-0.008842140436172485 490:0.014650250785052776 491:-0.05208217725157738 492:0.0669722855091095 493:-0.008001756854355335 494:0.035187866538763046 495:-0.013750439509749413 496:0.005458877421915531 497:-0.0006439376738853753 498:0.014201734215021133 499:-0.0028386719059199095 500:-0.05366004258394241 501:-0.000544358161278069 502:0.05534554272890091 503:0.026969408616423607 504:-0.03590119257569313 505:-0.017332660034298897 506:-0.04364932328462601 507:0.0008400226943194866 508:0.006248182617127895 509:-0.04047452658414841 510:-0.043441805988550186 511:-0.054128892719745636
0.6139518893910365 0.4009799070916824 0:0.02195422723889351 1:-0.007209405768662691 2:-0.010949620977044106 3:0.013325382024049759 4:-0.012096051126718521 5:0.028141656890511513 6:0.019876210018992424 7:0.06729781627655029 8:0.0031435112468898296 9:-0.026008186861872673 10:-0.006245867814868689 11:0.025521989911794662 12:-0.033446092158555984 13:-0.0233323834836483 14:-0.018239758908748627 15:-0.0488065741956234 16:0.01013421081006527 17:0.02197505161166191 18:0.04723867028951645 19:-0.023477936163544655 20:0.007884026505053043 21:0.005061854142695665 22:0.05139400064945221 23:-0.00016156530182342976 24:-0.01118472684174776 25:-0.014148575253784657 26:0.030860407277941704 27:0.055184293538331985 28:-0.0012424697633832693 29:0.02996775321662426 30:-0.043056659400463104 31:-0.055462345480918884 32:-0.02749827690422535 33:0.028751315549016 34:0.0504973903298378 35:0.019450973719358444 36:-0.01952568255364895 37:0.08437004685401917 38:0.0026638610288500786 39:0.0462714284658432 40:0.04462043568491936 41:0.08451197296380997 42:0.036441296339035034 43:0.028560692444443703 44:-0.04710812866687775 45:0.010670899413526058 46:-0.018782583996653557 47:0.043984171003103256 48:-0.07484196871519089 49:-0.03525849059224129 50:-0.0724981501698494 51:0.06559999287128448 52:0.059349317103624344 53:0.028082581236958504 54:0.01153353601694107 55:0.07036580890417099 56:0.0608733706176281 57:0.06274552643299103 58:0.015567905269563198 59:0.027936914935708046 60:-0.05737995356321335 61:-0.010437000542879105 62:-0.0022873790003359318 63:-0.058571189641952515 64:0.04447723180055618 65:0.012413561344146729 66:0.009326007217168808 67:-0.004074607510119677 68:0.0008270682883448899 69:-0.08063829690217972 70:-0.019665900617837906 71:-0.009051602333784103 72:-0.0075973826460540295 73:-0.06208467856049538 74:0.04447881504893303 75:-0.04427200183272362 76:-0.03581336885690689 77:0.017593208700418472 78:-0.04905536398291588 79:-0.028483286499977112 80:-0.0904034748673439 81:-0.025362327694892883 82:0.01957889273762703 83:0.008834597654640675 84:-0.0640312135219574 85:0.06251879781484604 86:-0.04037874937057495 87:-0.05552687123417854 88:-0.06438333541154861 89:-0.012340262532234192 90:0.00038043217500671744 91:-0.00676247151568532 92:-0.05158023163676262 93:-0.10562628507614136 94:-0.0018981333123520017 95:-0.042326007038354874 96:0.015911102294921875 97:-0.010080551728606224 98:-0.03610943630337715 99:0.012445860542356968 100:-0.05749345198273659 101:0.006143032107502222 102:-0.027339212596416473 103:0.057212945073843 104:0.037613000720739365 105:-0.0025528203696012497 106:0.009530574083328247 107:0.06285904347896576 108:-0.005260073579847813 109:-0.009266550652682781 110:-0.004785786848515272 111:0.050842735916376114 112:-0.016582941636443138 113:-0.040400080382823944 114:0.029508410021662712 115:-0.0020689591765403748 116:0.010527092963457108 117:0.07304001599550247 118:-0.036960914731025696 119:-0.10141398012638092 120:-0.07560903578996658 121:0.05929042771458626 122:0.08032990247011185 123:-0.02913220226764679 124:-0.000922188104595989 125:0.020612366497516632 126:-0.031742822378873825 127:0.010387388989329338 128:-0.021569112315773964 129:-0.024306442588567734 130:-0.11155456304550171 131:0.03886837884783745 132:0.07254651933908463 133:-0.020000731572508812 134:0.006319251377135515 135:0.018070779740810394 136:-0.033130623400211334 137:0.03566189482808113 138:0.02986559458076954 139:0.031949233263731 140:0.017091134563088417 141:-0.0735636055469513 142:0.04640550911426544 143:0.031990937888622284 144:-0.06158476322889328 145:0.012561259791254997 146:-0.05734267458319664 147:0.027805516496300697 148:0.0006966940127313137 149:0.0150506142526865 150:0.09829941391944885 151:-0.04446447268128395 152:-0.06237481161952019 153:-0.005352759268134832 154:-0.03458208963274956 155:0.04420219361782074 156:0.009537465870380402 157:0.05534003674983978 158:-0.03962104767560959 159:0.029934950172901154 160:0.018069082871079445 161:0.08211947232484818 162:-0.05581950396299362 163:0.025260699912905693 164:0.0061439345590770245 165:0.13451246917247772 166:-0.035239577293395996 167:-0.07367721945047379 168:-0.04828718677163124 169:0.09806593507528305 170:-0.013250261545181274 171:0.0029192809015512466 172:0.021106645464897156 173:-0.06259187310934067 174:0.0797027125954628 175:-0.015036272816359997 176:0.053189657628536224 177:-0.058040324598550797 178:-0.020979145541787148 179:-0.054468922317028046 180:-0.02052180841565132 181:0.05895184352993965 182:0.05822081118822098 183:0.0045583201572299 184:-0.04312875121831894 185:0.0037489444948732853 186:0.017671221867203712 187:-0.008096296340227127 188:0.06181490421295166 189:-0.041269224137067795 190:0.09489854425191879 191:0.021120324730873108 192:-0.00665643997490406 193:-0.037031494081020355 194:-0.023020857945084572 195:-0.003925314173102379 196:-0.028285644948482513 197:0.04851915314793587 198:-0.06843067705631256 199:0.011244582012295723 200:-0.02342667058110237 201:0.05866692587733269 202:0.014371507801115513 203:-0.07261880487203598 204:0.03578152507543564 205:0.07873228192329407 206:-0.09773487597703934 207:-0.03152157738804817 208:-0.0016836434369906783 209:-0.012366934679448605 210:0.043214961886405945 211:-0.0225543025881052 212:-0.008469974622130394 213:-0.03095666877925396 214:-0.04052521288394928 215:-0.029997294768691063 216:0.012193403206765652 217:-0.04949543997645378 218:-0.04932977259159088 219:0.010592358186841011 220:-0.03785927593708038 221:-0.09790284186601639 222:-0.023058349266648293 223:-0.09765368700027466 224:-0.04720340296626091 225:0.05955255404114723 226:0.08048434555530548 227:0.053913094103336334 228:-0.009145746007561684 229:0.009042995981872082 230:-0.013183347880840302 231:0.08564099669456482 232:-0.04068624600768089 233:-0.045482270419597626 234:0.047896504402160645 235:-0.008768434636294842 236:0.04526127129793167 237:-0.017781738191843033 238:-0.013065239414572716 239:0.004945636726915836 240:-0.06048938259482384 241:-0.03383997082710266 242:0.02240481600165367 243:0.0020955682266503572 244:-0.003217858960852027 245:0.012341320514678955 246:-0.012751982547342777 247:0.030308863148093224 248:-0.07326089590787888 249:-0.020614059641957283 250:0.07353587448596954 251:0.07336293905973434 252:0.02214164100587368 253:0.04490354657173157 254:0.04968547448515892 255:0.054298918694257736 256:-0.01742551475763321 257:0.015916038304567337 258:-0.006044278386980295 259:0.04897061362862587 260:0.05238955095410347 261:-0.04160229489207268 262:-0.006980022881180048 263:0.06479708850383759 264:-0.1481543928384781 265:-0.012501440942287445 266:0.005201923195272684 267:0.00513409823179245 268:-0.03448108583688736 269:0.03511729836463928 270:-0.0648367628455162 271:0.03447706252336502 272:-0.02387768030166626 273:0.029710400849580765 274:-0.002009608084335923 275:-0.053574010729789734 276:-0.06519806385040283 277:-0.012770366854965687 278:-0.008704916574060917 279:-0.024006269872188568 280:-0.02032390795648098 281:0.04404550418257713 282:-0.03133240342140198 283:-0.05868496745824814 284:-0.0951913371682167 285:-0.004526608623564243 286:0.0613345205783844 287:-0.007203755434602499 288:-0.010480616241693497 289:0.019669387489557266 290:0.034377798438072205 291:-0.039849791675806046 292:0.018196428194642067 293:0.04506196826696396 294:0.06748208403587341 295:-0.027769723907113075 296:-0.00383212068118155 297:0.026054497808218002 298:-0.022386521100997925 299:-0.04750806838274002 300:-0.011891274712979794 301:-0.006157075986266136 302:-0.002594660734757781 303:0.0043486799113452435 304:-0.006027445662766695 305:-0.027740200981497765 306:0.025516502559185028 307:0.008511641062796116 308:0.0621759295463562 309:0.0017738423775881529 310:0.00024128631048370153 311:-0.041152145713567734 312:-0.02275477722287178 313:0.03522328659892082 314:0.03595578297972679 315:0.054520513862371445 316:0.030912069603800774 317:0.011388079263269901 318:0.05571036785840988 319:-0.018674664199352264 320:-0.019431201741099358 321:0.021379489451646805 322:0.014558715745806694 323:0.03828022629022598 324:-0.002373226685449481 325:0.05348234251141548 326:-7.832678966224194e-05 327:-0.03991087153553963 328:0.004544277675449848 329:0.026764048263430595 330:-0.04665163904428482 331:-0.05602462962269783 332:-0.003506426000967622 333:0.02229944057762623 334:0.05164642632007599 335:0.0043755993247032166 336:0.04720909520983696 337:0.06936979293823242 338:-0.023701053112745285 339:0.03462913632392883 340:-0.012650085613131523 341:-0.03367593511939049 342:0.030904818326234818 343:0.01661384478211403 344:-0.08956030756235123 345:-0.06360062211751938 346:0.02971353381872177 347:0.0706937313079834 348:-0.010755938477814198 349:0.022947140038013458 350:-0.025970201939344406 351:0.10339962691068649 352:0.04291792958974838 353:-0.025814305990934372 354:-0.03959542140364647 355:-0.043913085013628006 356:0.04266893118619919 357:0.03523340821266174 358:-0.05375916138291359 359:0.005644853692501783 360:0.02779771201312542 361:0.04359007626771927 362:-0.018783636391162872 363:-0.03915254771709442 364:-0.04829901084303856 365:0.08576378971338272 366:-0.02598869614303112 367:0.025395112112164497 368:0.046194154769182205 369:-0.003040715353563428 370:-0.05273217707872391 371:0.021855825558304787 372:0.020174169912934303 373:-0.026795195415616035 374:-0.014709840528666973 375:0.028742633759975433 376:0.06166804954409599 377:-0.07899580895900726 378:0.054536473006010056 379:-0.03306695073843002 380:-0.02123226784169674 381:-0.005555449984967709 382:-0.01229414064437151 383:-0.01977301575243473 384:0.03881154581904411 385:0.019377073273062706 386:0.10240039974451065 387:-0.07682768255472183 388:0.04329487308859825 389:-0.06069468334317207 390:0.03686472028493881 391:0.12139756232500076 392:0.00022815946431364864 393:0.02140839397907257 394:0.014482922852039337 395:0.004372589290142059 396:0.049223363399505615 397:0.03189362585544586 398:0.04274947941303253 399:0.04923994094133377 400:0.029082851484417915 401:0.029724368825554848 402:-0.0023098373785614967 403:0.0025151846930384636 404:-0.0016892488347366452 405:0.012373553588986397 406:-0.03185860812664032 407:-0.04272429645061493 408:0.0449053980410099 409:0.05499734356999397 410:-0.041872233152389526 411:0.049737878143787384 412:-0.06534019112586975 413:0.004462717566639185 414:-0.05880902335047722 415:-0.06826822459697723 416:-0.03399064391851425 417:-0.1029244214296341 418:0.046727631241083145 419:-0.04200500622391701 420:0.07701223343610764 421:0.06206589192152023 422:-0.021875128149986267 423:0.012396194972097874 424:-0.022386331111192703 425:-0.08362415432929993 426:0.057018037885427475 427:-0.05906077101826668 428:0.003661294002085924 429:0.023081080988049507 430:0.007182030472904444 431:0.06259586662054062 432:0.03346914052963257 433:0.009980015456676483 434:-0.03140755742788315 435:-0.026459848508238792 436:0.0264809038490057 437:0.013250084593892097 438:0.038264743983745575 439:-0.042944010347127914 440:-0.06359207630157471 441:0.05412275716662407 442:0.04371826723217964 443:-0.05040961131453514 444:0.08181190490722656 445:0.007734390906989574 446:-0.012510744854807854 447:-0.015502754598855972 448:-0.07026773691177368 449:-0.04591210559010506 450:-0.021476449444890022 451:0.009405268356204033 452:0.018784940242767334 453:-0.01759171672165394 454:-0.0020185804460197687 455:-0.007880750112235546 456:0.07323893904685974 457:0.06185251474380493 458:0.06250833719968796 459:-0.06229555979371071 460:0.04450327903032303 461:0.08132705837488174 462:-0.029958898201584816 463:-0.036186713725328445 464:-0.01872953213751316 465:-0.005899790208786726 466:-0.032914940267801285 467:-0.019140375778079033 468:-0.002051988849416375 469:0.01770731806755066 470:-0.0003560768091119826 471:-0.023487117141485214 472:0.03447265923023224 473:-0.030213264748454094 474:0.011369272135198116 475:0.038676779717206955 476:0.07704567164182663 477:0.09900545328855515 478:-0.07330401241779327 479:-0.022769583389163017 480:0.0332554429769516 481:0.011961134150624275 482:0.03705137223005295 483:-0.026956191286444664 484:0.0232224203646183 485:0.06628172844648361 486:-0.02095235511660576 487:-0.004554516635835171 488:-0.06411007791757584 489:0.00971843209117651 490:-0.03014085441827774 491:-0.03709624707698822 492:-0.04767707735300064 493:-0.008200042881071568 494:0.051718972623348236 495:0.06995083391666412 496:-0.012053589336574078 497:0.02199222892522812 498:-0.01542943250387907 499:0.04104653373360634 500:-0.06156554073095322 501:-0.02398609183728695 502:0.04959706962108612 503:0.0493338517844677 504:-0.012934809550642967 505:-0.06464842706918716 506:0.05619007349014282 507:0.07707882672548294 508:0.024512391537427902 509:0.0530182309448719 510:-0.09583552181720734 511:-0.0755721926689148
1.0 0.0 0:0.013275938108563423 1:-0.05754565820097923 2:-0.02162139117717743 3:0.07738171517848969 4:0.04638467729091644 5:0.04423608258366585 6:0.02759358286857605 7:-0.01798342727124691 8:0.009891453199088573 9:0.01950094848871231 10:0.014050936326384544 11:0.05217372998595238 12:-0.02438698522746563 13:0.023904776200652122 14:0.030539987608790398 15:0.025534937158226967 16:0.02881564386188984 17:0.005499192047864199 18:0.06587304919958115 19:-0.0017012740718200803 20:-0.011886723339557648 21:-0.0015783560229465365 22:-0.0033593783155083656 23:-0.01411037053912878 24:-0.02653525210916996 25:-0.08765896409749985 26:-0.04459575563669205 27:0.0601583831012249 28:-0.04115169867873192 29:0.03603912517428398 30:-0.041692640632390976 31:-0.07936447858810425 32:-0.03614478185772896 33:-0.017861614003777504 34:-0.026173118501901627 35:-0.03387593477964401 36:-0.022761201485991478 37:0.05540260672569275 38:-0.0490800216794014 39:0.026933833956718445 40:-0.012201772071421146 41:0.14316116273403168 42:0.021953031420707703 43:0.03424162417650223 44:0.03276169300079346 45:0.05063262954354286 46:0.0907558724284172 47:-0.0074060349725186825 48:-0.05671146139502525 49:0.0022192865144461393 50:0.0149069270119071 51:0.009977978654205799 52:0.03543351590633392 53:-0.013436872512102127 54:-0.032338839024305344 55:0.016904929652810097 56:0.041363757103681564 57:0.01487122755497694 58:-0.017261875793337822 59:0.022182120010256767 60:-0.006717377342283726 61:0.02252827398478985 62:0.02515675127506256 63:-0.05400398001074791 64:-0.0029504969716072083 65:0.0896206796169281 66:0.029972881078720093 67:-0.04827750474214554 68:-0.008906464092433453 69:-0.01879587210714817 70:-0.029502570629119873 71:0.05188819766044617 72:0.004182886332273483 73:-0.032356057316064835 74:0.0063441116362810135 75:0.005857578478753567 76:0.012012501247227192 77:0.03897698223590851 78:0.03317481651902199 79:0.044564951211214066 80:0.0057616098783910275 81:-0.004403360188007355 82:-0.051432155072689056 83:0.03560211509466171 84:0.025270216166973114 85:0.04273749887943268 86:-0.059285592287778854 87:0.011808729730546474 88:-0.08401784300804138 89:0.022939171642065048 90:0.044117484241724014 91:0.01303575374186039 92:0.015203035436570644 93:-0.05558612197637558 94:0.029946086928248405 95:-0.021653275936841965 96:0.032774996012449265 97:0.05249761417508125 98:0.042846571654081345 99:-0.012366007082164288 100:0.013170774094760418 101:-0.0193043015897274 102:-0.024263132363557816 103:0.02441340871155262 104:0.05895764380693436 105:0.03237248584628105 106:-0.043170880526304245 107:0.006689401809126139 108:-0.01365356519818306 109:0.04667781665921211 110:-0.018969854339957237 111:0.014018389396369457 112:-0.0027301758527755737 113:-0.047530412673950195 114:-0.0021448920015245676 115:-0.02886546589434147 116:0.045268863439559937 117:0.014150047674775124 118:0.008818435482680798 119:0.017856037244200706 120:-0.08282942324876785 121:0.01014108769595623 122:0.0782012864947319 123:-0.06693089753389359 124:0.03641710802912712 125:-0.008292783051729202 126:0.02678978629410267 127:-0.04779622331261635 128:-0.008426058106124401 129:0.00473698740825057 130:-0.028647232800722122 131:0.02996617928147316 132:0.09893496334552765 133:-0.019399074837565422 134:-0.041012026369571686 135:-0.003638089634478092 136:-0.013017336837947369 137:0.043633539229631424 138:0.07854501903057098 139:0.03766230493783951 140:0.017979394644498825 141:0.020294586196541786 142:0.053280219435691833 143:0.04863777384161949 144:0.0021131481043994427 145:-0.04297803342342377 146:-0.04898348078131676 147:0.02441597916185856 148:-0.039551857858896255 149:0.02894168347120285 150:0.017101474106311798 151:-0.0786290392279625 152:-0.07414352893829346 153:0.03386562317609787 154:-0.03502114489674568 155:-0.016028115525841713 156:-0.003561817342415452 157:0.055851131677627563 158:-0.03828703612089157 159:-0.011400260031223297 160:0.0629211962223053 161:0.015426009893417358 162:-0.0311539676040411 163:0.02045111544430256 164:-0.008214233443140984 165:0.06299571692943573 166:-0.03886336460709572 167:-0.07989275455474854 168:0.03941279277205467 169:0.029057050123810768 170:-0.0542307049036026 171:0.02440819703042507 172:0.062051255255937576 173:-0.045724913477897644 174:0.06161745265126228 175:0.028811946511268616 176:0.10672185570001602 177:0.005012616980820894 178:0.024332748726010323 179:-0.07632806152105331 180:-0.06747137010097504 181:-0.022679181769490242 182:-0.016652503982186317 183:0.00786964688450098 184:-0.0616753064095974 185:0.019311383366584778 186:0.06785372644662857 187:0.03222597762942314 188:0.044268898665905 189:0.023830821737647057 190:0.012072732672095299 191:-0.03127871826291084 192:0.0886729285120964 193:0.07461506128311157 194:0.0095753138884902 195:0.038364384323358536 196:0.025337057188153267 197:0.05300138518214226 198:-0.054587993770837784 199:0.022249417379498482 200:0.0445450134575367 201:0.024164734408259392 202:0.030917979776859283 203:-0.10806068778038025 204:-0.005303101148456335 205:0.0745222419500351 206:-0.014151656068861485 207:0.02657853066921234 208:0.05362562835216522 209:0.010601133108139038 210:-0.0643746629357338 211:0.0023702019825577736 212:-0.007693205028772354 213:-0.0816737711429596 214:-0.010008463636040688 215:-0.014709348790347576 216:-0.056605760008096695 217:-0.013819240033626556 218:-0.07104699313640594 219:0.07345496863126755 220:-0.04774007946252823 221:-0.07855433970689774 222:-0.0006858092383481562 223:-0.01559208333492279 224:-0.008078721351921558 225:-0.022633278742432594 226:0.0637717917561531 227:-0.028868461027741432 228:-0.0521949864923954 229:0.03389962390065193 230:0.04162013158202171 231:0.02122354507446289 232:-0.017915597185492516 233:-0.09177771955728531 234:-0.0005542783183045685 235:-0.014054322615265846 236:0.05470351502299309 237:0.011242102831602097 238:-0.03310267999768257 239:0.06010035425424576 240:0.03806142881512642 241:-0.018813766539096832 242:0.0024714251048862934 243:0.02169877476990223 244:-0.08202487975358963 245:0.013369723223149776 246:-0.030369166284799576 247:0.07435672730207443 248:-0.07756359875202179 249:0.06108001247048378 250:0.024578126147389412 251:0.07610977441072464 252:0.009358927607536316 253:0.03191368281841278 254:-0.026580628007650375 255:0.10808862000703812 256:-0.11879622936248779 257:0.03619549795985222 258:0.06120899319648743 259:0.018551085144281387 260:-0.07233443111181259 261:-0.020803315564990044 262:0.030187997967004776 263:0.053554560989141464 264:-0.019510913640260696 265:0.10512148588895798 266:-0.03297514095902443 267:0.04128560423851013 268:0.013225181959569454 269:0.004151266533881426 270:-0.04840514436364174 271:-0.041545845568180084 272:-0.013509663753211498 273:0.034086067229509354 274:-0.039156731218099594 275:-0.059412550181150436 276:-0.03789700195193291 277:0.005652204621583223 278:-0.07767648249864578 279:-0.04142868518829346 280:0.010273590683937073 281:0.05313175171613693 282:0.006119269412010908 283:-0.06090448796749115 284:-0.01814274862408638 285:-0.009298794902861118 286:-0.017374461516737938 287:0.007433873135596514 288:-0.017496712505817413 289:0.002485412871465087 290:0.04015698283910751 291:-0.06344016641378403 292:-0.014249322935938835 293:0.06058673560619354 294:0.017578402534127235 295:-0.03427717834711075 296:-0.011657416820526123 297:0.021195009350776672 298:0.013176390901207924 299:-0.11106490343809128 300:0.027450772002339363 301:0.081566222012043 302:0.04314813017845154 303:-0.02174868993461132 304:0.04148447886109352 305:0.06962060183286667 306:-0.009045167826116085 307:0.029672108590602875 308:0.04556872695684433 309:0.016693662852048874 310:0.021601837128400803 311:0.0756538063287735 312:0.030034568160772324 313:0.09162796288728714 314:0.07216781377792358 315:-0.04500821977853775 316:-0.07721792906522751 317:0.06938082724809647 318:-0.039282213896512985 319:0.008219650015234947 320:-0.021481413394212723 321:-0.019705599173903465 322:0.03279012814164162 323:0.03386174142360687 324:0.01270967721939087 325:0.04042895510792732 326:-0.007816622965037823 327:-0.014501506462693214 328:0.013841698877513409 329:0.06434283405542374 330:-0.06101929023861885 331:0.014369620941579342 332:-0.06972254812717438 333:-0.0006263985414989293 334:-0.03783024102449417 335:0.0012224821839481592 336:0.033715374767780304 337:-0.01216901559382677 338:0.005778796970844269 339:0.08670325577259064 340:0.04766646400094032 341:0.03652670606970787 342:0.003406692761927843 343:0.04431019723415375 344:-0.07643997669219971 345:-0.043719880282878876 346:-0.020656028762459755 347:0.011630341410636902 348:-0.035091981291770935 349:0.0011961275013163686 350:0.02679106965661049 351:0.07854241877794266 352:0.04377787932753563 353:-0.03130277991294861 354:-0.051638439297676086 355:-0.026596838608384132 356:0.054346613585948944 357:0.02934977598488331 358:0.004670163616538048 359:-0.043051108717918396 360:-0.04808241128921509 361:0.022586440667510033 362:-0.03302918002009392 363:-0.012508070096373558 364:-0.06424929201602936 365:0.10596787184476852 366:-0.04567462578415871 367:-0.050524044781923294 368:0.016576794907450676 369:0.011189608834683895 370:-0.1293821930885315 371:-0.0009828972397372127 372:-0.006629393436014652 373:0.07010253518819809 374:0.057995766401290894 375:0.05534995347261429 376:0.026557447388768196 377:-0.0665222555398941 378:0.016564866527915 379:0.035810116678476334 380:0.025010928511619568 381:-0.07768651843070984 382:-0.056565869599580765 383:0.00037800820427946746 384:-0.02222410961985588 385:0.08222904801368713 386:0.10405788570642471 387:-0.02205611579120159 388:0.019631866365671158 389:-0.07415495067834854 390:0.01914108917117119 391:0.020861783996224403 392:0.00578273693099618 393:0.014426895417273045 394:0.049601368606090546 395:0.0715159997344017 396:0.008069906383752823 397:0.0019308109767735004 398:0.0772285908460617 399:0.005217577330768108 400:-0.026532994583249092 401:0.017855947837233543 402:0.02660728618502617 403:-0.0503779761493206 404:0.026855425909161568 405:-0.0007152936304919422 406:-0.03152802586555481 407:-0.030161289498209953 408:0.033271823078393936 409:-0.04973847419023514 410:0.0053765918128192425 411:0.013899169862270355 412:0.023301441222429276 413:-0.025009041652083397 414:0.0018049849895760417 415:-0.003628070466220379 416:-0.015052186325192451 417:-0.014793028123676777 418:0.03758503869175911 419:-0.02068379893898964 420:-0.0011615739203989506 421:0.039929136633872986 422:0.004770499188452959 423:0.049028318375349045 424:0.02898048609495163 425:0.009201240725815296 426:0.006811534054577351 427:0.029191402718424797 428:-0.010445679537951946 429:0.03271454572677612 430:-0.039599817246198654 431:0.0168998371809721 432:0.008157887496054173 433:-0.0304621160030365 434:-0.04102935269474983 435:0.04635271802544594 436:0.02139643393456936 437:0.06136108562350273 438:-0.036676544696092606 439:-0.05594005063176155 440:-0.07803097367286682 441:-0.05151475593447685 442:0.0451352633535862 443:-0.021204425022006035 444:0.059876784682273865 445:-0.022526249289512634 446:0.028593281283974648 447:-0.001605770317837596 448:-0.07986753433942795 449:-0.04988536983728409 450:-0.014259280636906624 451:0.007641602773219347 452:0.017568599432706833 453:-0.01914234273135662 454:-0.03558652102947235 455:-0.08529035747051239 456:0.12041794508695602 457:0.057904377579689026 458:0.03698498383164406 459:-0.05284983664751053 460:0.0032237672712653875 461:0.0067857783287763596 462:-0.02465835027396679 463:0.008423592895269394 464:-0.006982955615967512 465:-0.039196692407131195 466:-0.05996353179216385 467:-0.013862482272088528 468:-0.011331052519381046 469:-0.010309481993317604 470:-0.009826991707086563 471:-0.03981633484363556 472:0.0001200677506858483 473:-0.05013974383473396 474:-0.09837236255407333 475:-0.06227196753025055 476:0.0825447142124176 477:0.00580060388892889 478:0.06286339461803436 479:0.0481967069208622 480:-0.017588768154382706 481:0.03282256796956062 482:-0.01603488251566887 483:-0.006310323718935251 484:0.03140060976147652 485:0.07322034984827042 486:-0.07002231478691101 487:-0.021074211224913597 488:0.0025443010963499546 489:0.0310964472591877 490:-0.01116020604968071 491:-0.04542917758226395 492:-0.03672771528363228 493:0.029541805386543274 494:0.0257149375975132 495:0.012259512208402157 496:0.08092813193798065 497:-0.02395208179950714 498:-0.021898897364735603 499:0.05251463130116463 500:-0.02955675683915615 501:0.008736344054341316 502:0.004886762239038944 503:0.04112658649682999 504:-0.09977616369724274 505:0.0008112433133646846 506:0.07996169477701187 507:0.04332652688026428 508:0.05781564861536026 509:0.016497720032930374 510:-0.10202125459909439 511:-0.06557846069335938
